digraph Tree {
node [shape=box, style="filled, rounded", color="black", fontname="helvetica"] ;
edge [fontname="helvetica"] ;
0 [label="petal width (cm) <= 0.8\ngini = 0.666\nsamples = 112\nvalue = [35, 38, 39]\nclass = virginica", fillcolor="#fdfcff"] ;
1 [label="gini = 0.0\nsamples = 35\nvalue = [35, 0, 0]\nclass = setosa", fillcolor="#e58139"] ;
0 -> 1 [labeldistance=2.5, labelangle=45, headlabel="True"] ;
2 [label="petal width (cm) <= 1.75\ngini = 0.5\nsamples = 77\nvalue = [0, 38, 39]\nclass = virginica", fillcolor="#fcfafe"] ;
0 -> 2 [labeldistance=2.5, labelangle=-45, headlabel="False"] ;
3 [label="gini = 0.136\nsamples = 41\nvalue = [0, 38, 3]\nclass = versicolor", fillcolor="#49e78b"] ;
2 -> 3 ;
4 [label="gini = 0.0\nsamples = 36\nvalue = [0, 0, 36]\nclass = virginica", fillcolor="#8139e5"] ;
2 -> 4 ;
}